<?xml version="1.0"?>
<opencv_storage>
<cascade>
  <stageType>BOOST</stageType>
  <featureType>HAAR</featureType>
  <height>50</height>
  <width>50</width>
  <stageParams>
    <boostType>GAB</boostType>
    <minHitRate>9.9500000476837158e-01</minHitRate>
    <maxFalseAlarm>5.0000000000000000e-01</maxFalseAlarm>
    <weightTrimRate>9.4999999999999996e-01</weightTrimRate>
    <maxDepth>1</maxDepth>
    <maxWeakCount>100</maxWeakCount></stageParams>
  <featureParams>
    <maxCatCount>0</maxCatCount>
    <featSize>1</featSize>
    <mode>BASIC</mode></featureParams>
  <stageNum>2</stageNum>
  <stages>
    <!-- stage 0 -->
    <_>
      <maxWeakCount>2</maxWeakCount>
      <stageThreshold>4.3996032327413559e-02</stageThreshold>
      <weakClassifiers>
        <_>
          <internalNodes>
            0 -1 1 5.5418834090232849e-02</internalNodes>
          <leafValues>
            -9.0196079015731812e-01 9.7986578941345215e-01</leafValues></_>
        <_>
          <internalNodes>
            0 -1 2 1.0266217589378357e-01</internalNodes>
          <leafValues>
            -9.3586975336074829e-01 9.6716547012329102e-01</leafValues></_></weakClassifiers></_>
    <!-- stage 1 -->
    <_>
      <maxWeakCount>2</maxWeakCount>
      <stageThreshold>1.3848979957401752e-02</stageThreshold>
      <weakClassifiers>
        <_>
          <internalNodes>
            0 -1 3 2.1806934475898743e-01</internalNodes>
          <leafValues>
            -9.5454543828964233e-01 9.1025638580322266e-01</leafValues></_>
        <_>
          <internalNodes>
            0 -1 0 3.0465647578239441e-03</internalNodes>
          <leafValues>
            -8.5305851697921753e-01 9.6839445829391479e-01</leafValues></_></weakClassifiers></_></stages>
  <features>
    <_>
      <rects>
        <_>
          0 21 6 8 -1.</_>
        <_>
          2 21 2 8 3.</_></rects>
      <tilted>0</tilted></_>
    <_>
      <rects>
        <_>
          6 23 24 15 -1.</_>
        <_>
          18 23 12 15 2.</_></rects>
      <tilted>0</tilted></_>
    <_>
      <rects>
        <_>
          19 17 17 30 -1.</_>
        <_>
          19 27 17 10 3.</_></rects>
      <tilted>0</tilted></_>
    <_>
      <rects>
        <_>
          20 4 26 45 -1.</_>
        <_>
          20 19 26 15 3.</_></rects>
      <tilted>0</tilted></_></features></cascade>
</opencv_storage>
