<?xml version="1.0"?>
<opencv_storage>
<stage9>
  <maxWeakCount>76</maxWeakCount>
  <stageThreshold>-8.3874022960662842e-01</stageThreshold>
  <weakClassifiers>
    <_>
      <internalNodes>
        0 -1 56157 -2.2571872919797897e-02</internalNodes>
      <leafValues>
        6.8246155977249146e-01 1.8304635584354401e-01</leafValues></_>
    <_>
      <internalNodes>
        0 -1 61444 3.4489284735172987e-03</internalNodes>
      <leafValues>
        -8.2522965967655182e-02 4.4740360975265503e-01</leafValues></_>
    <_>
      <internalNodes>
        0 -1 5730 1.1830137111246586e-02</internalNodes>
      <leafValues>
        -2.2906410694122314e-01 1.8336881697177887e-01</leafValues></_>
    <_>
      <internalNodes>
        0 -1 61250 -4.1623413562774658e-03</internalNodes>
      <leafValues>
        3.7767595052719116e-01 -9.7231611609458923e-02</leafValues></_>
    <_>
      <internalNodes>
        0 -1 61476 -4.6084215864539146e-03</internalNodes>
      <leafValues>
        2.8527382016181946e-01 -1.2628354132175446e-01</leafValues></_>
    <_>
      <internalNodes>
        0 -1 43915 -8.9705782011151314e-03</internalNodes>
      <leafValues>
        1.7795142531394958e-01 -1.4945931732654572e-01</leafValues></_>
    <_>
      <internalNodes>
        0 -1 57434 1.4864384196698666e-02</internalNodes>
      <leafValues>
        5.7388972491025925e-02 -4.3637010455131531e-01</leafValues></_>
    <_>
      <internalNodes>
        0 -1 68342 -4.7308634966611862e-03</internalNodes>
      <leafValues>
        -7.3723232746124268e-01 2.5488104671239853e-02</leafValues></_>
    <_>
      <internalNodes>
        0 -1 35213 2.6404578238725662e-02</internalNodes>
      <leafValues>
        -1.0534325242042542e-01 2.2322200238704681e-01</leafValues></_>
    <_>
      <internalNodes>
        0 -1 59959 -3.0683251097798347e-03</internalNodes>
      <leafValues>
        -3.4307703375816345e-01 6.9903507828712463e-02</leafValues></_>
    <_>
      <internalNodes>
        0 -1 41750 -2.4552275426685810e-03</internalNodes>
      <leafValues>
        2.4326871335506439e-01 -1.0017389804124832e-01</leafValues></_>
    <_>
      <internalNodes>
        0 -1 26461 4.3010900844819844e-04</internalNodes>
      <leafValues>
        -1.6824860870838165e-01 1.2821510434150696e-01</leafValues></_>
    <_>
      <internalNodes>
        0 -1 16744 5.3928367793560028e-02</internalNodes>
      <leafValues>
        2.4274671450257301e-02 -7.4105948209762573e-01</leafValues></_>
    <_>
      <internalNodes>
        0 -1 74298 7.4186874553561211e-03</internalNodes>
      <leafValues>
        -9.2054456472396851e-02 2.2245348989963531e-01</leafValues></_>
    <_>
      <internalNodes>
        0 -1 67933 2.2713763639330864e-02</internalNodes>
      <leafValues>
        -4.0516909211874008e-02 5.8729648590087891e-01</leafValues></_>
    <_>
      <internalNodes>
        0 -1 39501 1.9500114722177386e-03</internalNodes>
      <leafValues>
        -8.3682596683502197e-02 2.4033930897712708e-01</leafValues></_>
    <_>
      <internalNodes>
        0 -1 65334 -1.6093868762254715e-03</internalNodes>
      <leafValues>
        -2.0209020376205444e-01 1.0754522681236267e-01</leafValues></_>
    <_>
      <internalNodes>
        0 -1 12704 -8.9936042204499245e-03</internalNodes>
      <leafValues>
        -3.8109967112541199e-01 5.2648454904556274e-02</leafValues></_>
    <_>
      <internalNodes>
        0 -1 21682 -2.0749280229210854e-03</internalNodes>
      <leafValues>
        -3.6063104867935181e-01 5.1188934594392776e-02</leafValues></_>
    <_>
      <internalNodes>
        0 -1 66806 4.7177216038107872e-03</internalNodes>
      <leafValues>
        2.8356311842799187e-02 -6.5963500738143921e-01</leafValues></_>
    <_>
      <internalNodes>
        0 -1 44817 -1.0979385115206242e-03</internalNodes>
      <leafValues>
        2.0778240263462067e-01 -8.7550312280654907e-02</leafValues></_>
    <_>
      <internalNodes>
        0 -1 44815 1.1158334091305733e-03</internalNodes>
      <leafValues>
        -1.0269160568714142e-01 2.2083559632301331e-01</leafValues></_>
    <_>
      <internalNodes>
        0 -1 13925 -7.0244688540697098e-03</internalNodes>
      <leafValues>
        -3.6000090837478638e-01 5.5720102041959763e-02</leafValues></_>
    <_>
      <internalNodes>
        0 -1 27273 -3.3511933870613575e-03</internalNodes>
      <leafValues>
        -4.7519269585609436e-01 3.5755362361669540e-02</leafValues></_>
    <_>
      <internalNodes>
        0 -1 17294 -1.7549049109220505e-02</internalNodes>
      <leafValues>
        -4.2935240268707275e-01 4.0839452296495438e-02</leafValues></_>
    <_>
      <internalNodes>
        0 -1 57593 2.4404907599091530e-03</internalNodes>
      <leafValues>
        -7.1525186300277710e-02 2.5268089771270752e-01</leafValues></_>
    <_>
      <internalNodes>
        0 -1 57593 -3.6859354004263878e-03</internalNodes>
      <leafValues>
        3.1774407625198364e-01 -6.5368860960006714e-02</leafValues></_>
    <_>
      <internalNodes>
        0 -1 54045 4.3463632464408875e-03</internalNodes>
      <leafValues>
        4.5521873980760574e-02 -4.2885529994964600e-01</leafValues></_>
    <_>
      <internalNodes>
        0 -1 54054 -5.3404467180371284e-03</internalNodes>
      <leafValues>
        2.3806487023830414e-01 -7.5952269136905670e-02</leafValues></_>
    <_>
      <internalNodes>
        0 -1 41749 -5.3549725562334061e-03</internalNodes>
      <leafValues>
        -4.8129886388778687e-01 3.8874916732311249e-02</leafValues></_>
    <_>
      <internalNodes>
        0 -1 61067 -1.2883435934782028e-02</internalNodes>
      <leafValues>
        -4.6988436579704285e-01 3.6090396344661713e-02</leafValues></_>
    <_>
      <internalNodes>
        0 -1 63911 -3.9862701669335365e-03</internalNodes>
      <leafValues>
        2.2772832214832306e-01 -8.0399274826049805e-02</leafValues></_>
    <_>
      <internalNodes>
        0 -1 60013 -2.8683776035904884e-03</internalNodes>
      <leafValues>
        2.0131359994411469e-01 -9.8164536058902740e-02</leafValues></_>
    <_>
      <internalNodes>
        0 -1 53253 2.8592791408300400e-02</internalNodes>
      <leafValues>
        4.0350735187530518e-02 -4.9316349625587463e-01</leafValues></_>
    <_>
      <internalNodes>
        0 -1 66568 3.9511150680482388e-03</internalNodes>
      <leafValues>
        2.8594654053449631e-02 -5.8469784259796143e-01</leafValues></_>
    <_>
      <internalNodes>
        0 -1 19628 5.4681603796780109e-04</internalNodes>
      <leafValues>
        -1.1381769180297852e-01 1.5932317078113556e-01</leafValues></_>
    <_>
      <internalNodes>
        0 -1 13306 -1.9292631186544895e-03</internalNodes>
      <leafValues>
        2.2144052386283875e-01 -8.1039756536483765e-02</leafValues></_>
    <_>
      <internalNodes>
        0 -1 12607 2.0415545441210270e-03</internalNodes>
      <leafValues>
        -1.7338201403617859e-01 1.2721402943134308e-01</leafValues></_>
    <_>
      <internalNodes>
        0 -1 50617 -8.5300887003540993e-03</internalNodes>
      <leafValues>
        -1.9410434365272522e-01 9.6496552228927612e-02</leafValues></_>
    <_>
      <internalNodes>
        0 -1 70310 1.7852000892162323e-03</internalNodes>
      <leafValues>
        8.9289538562297821e-02 -1.9938126206398010e-01</leafValues></_>
    <_>
      <internalNodes>
        0 -1 36661 -1.2761701364070177e-03</internalNodes>
      <leafValues>
        1.9692651927471161e-01 -9.1290734708309174e-02</leafValues></_>
    <_>
      <internalNodes>
        0 -1 49920 -5.6066508404910564e-03</internalNodes>
      <leafValues>
        -8.3963334560394287e-01 2.0207541063427925e-02</leafValues></_>
    <_>
      <internalNodes>
        0 -1 67633 -9.7774304449558258e-03</internalNodes>
      <leafValues>
        -9.0497630834579468e-01 1.5073321759700775e-02</leafValues></_>
    <_>
      <internalNodes>
        0 -1 49859 -3.4217853099107742e-03</internalNodes>
      <leafValues>
        -5.1714652776718140e-01 3.0648881569504738e-02</leafValues></_>
    <_>
      <internalNodes>
        0 -1 36661 2.5308188050985336e-03</internalNodes>
      <leafValues>
        -6.3772492110729218e-02 2.6519879698753357e-01</leafValues></_>
    <_>
      <internalNodes>
        0 -1 25791 1.9189370796084404e-02</internalNodes>
      <leafValues>
        4.3008372187614441e-02 -3.8176298141479492e-01</leafValues></_>
    <_>
      <internalNodes>
        0 -1 23502 -3.9808750152587891e-03</internalNodes>
      <leafValues>
        -5.7793802022933960e-01 2.8215916827321053e-02</leafValues></_>
    <_>
      <internalNodes>
        0 -1 66622 -2.1999399177730083e-03</internalNodes>
      <leafValues>
        1.7168989777565002e-01 -9.5475152134895325e-02</leafValues></_>
    <_>
      <internalNodes>
        0 -1 69741 -6.9807264953851700e-03</internalNodes>
      <leafValues>
        2.3279629647731781e-01 -8.2290865480899811e-02</leafValues></_>
    <_>
      <internalNodes>
        0 -1 53246 -1.1395080946385860e-02</internalNodes>
      <leafValues>
        -6.5115731954574585e-01 2.3939503356814384e-02</leafValues></_>
    <_>
      <internalNodes>
        0 -1 64733 1.6604742268100381e-03</internalNodes>
      <leafValues>
        -1.1711624264717102e-01 1.5755574405193329e-01</leafValues></_>
    <_>
      <internalNodes>
        0 -1 64901 2.5389934889972210e-03</internalNodes>
      <leafValues>
        -7.7481195330619812e-02 2.3889116942882538e-01</leafValues></_>
    <_>
      <internalNodes>
        0 -1 61632 -7.3650972917675972e-03</internalNodes>
      <leafValues>
        -4.4721671938896179e-01 4.3912321329116821e-02</leafValues></_>
    <_>
      <internalNodes>
        0 -1 47924 -4.8193167895078659e-03</internalNodes>
      <leafValues>
        -5.8285003900527954e-01 2.6235587894916534e-02</leafValues></_>
    <_>
      <internalNodes>
        0 -1 27281 1.3878909870982170e-02</internalNodes>
      <leafValues>
        -4.2938221246004105e-02 3.8469219207763672e-01</leafValues></_>
    <_>
      <internalNodes>
        0 -1 64327 5.1833083853125572e-03</internalNodes>
      <leafValues>
        4.5137125998735428e-02 -3.9367336034774780e-01</leafValues></_>
    <_>
      <internalNodes>
        0 -1 64107 -2.7505587786436081e-03</internalNodes>
      <leafValues>
        -2.1654920279979706e-01 7.9624600708484650e-02</leafValues></_>
    <_>
      <internalNodes>
        0 -1 68230 -4.2361188679933548e-03</internalNodes>
      <leafValues>
        -5.6364536285400391e-01 2.8442939743399620e-02</leafValues></_>
    <_>
      <internalNodes>
        0 -1 70226 -5.9679979458451271e-03</internalNodes>
      <leafValues>
        2.1949021518230438e-01 -7.6544269919395447e-02</leafValues></_>
    <_>
      <internalNodes>
        0 -1 72382 -2.2183549590408802e-03</internalNodes>
      <leafValues>
        2.2992806136608124e-01 -7.8730672597885132e-02</leafValues></_>
    <_>
      <internalNodes>
        0 -1 57985 -1.7327036708593369e-02</internalNodes>
      <leafValues>
        4.2399111390113831e-01 -3.9239604026079178e-02</leafValues></_>
    <_>
      <internalNodes>
        0 -1 72429 -1.9966324325650930e-03</internalNodes>
      <leafValues>
        2.0824109017848969e-01 -8.4184795618057251e-02</leafValues></_>
    <_>
      <internalNodes>
        0 -1 74366 4.8212162801064551e-04</internalNodes>
      <leafValues>
        -1.0661803185939789e-01 1.7005559802055359e-01</leafValues></_>
    <_>
      <internalNodes>
        0 -1 67632 -5.5818436667323112e-03</internalNodes>
      <leafValues>
        -4.7668170928955078e-01 3.6611597985029221e-02</leafValues></_>
    <_>
      <internalNodes>
        0 -1 11777 8.3997324109077454e-03</internalNodes>
      <leafValues>
        3.4079026430845261e-02 -4.8103150725364685e-01</leafValues></_>
    <_>
      <internalNodes>
        0 -1 27658 -1.7582718282938004e-03</internalNodes>
      <leafValues>
        2.2109775245189667e-01 -7.8238829970359802e-02</leafValues></_>
    <_>
      <internalNodes>
        0 -1 5303 -3.1627255678176880e-01</internalNodes>
      <leafValues>
        3.8588628172874451e-01 -4.3091300874948502e-02</leafValues></_>
    <_>
      <internalNodes>
        0 -1 46872 -4.9890596419572830e-03</internalNodes>
      <leafValues>
        -4.8706942796707153e-01 3.7454288452863693e-02</leafValues></_>
    <_>
      <internalNodes>
        0 -1 61102 -7.0391008630394936e-03</internalNodes>
      <leafValues>
        -5.0021696090698242e-01 2.9637016355991364e-02</leafValues></_>
    <_>
      <internalNodes>
        0 -1 48228 -5.6429579854011536e-04</internalNodes>
      <leafValues>
        1.0385712236166000e-01 -1.5015158057212830e-01</leafValues></_>
    <_>
      <internalNodes>
        0 -1 77540 4.5477254316210747e-03</internalNodes>
      <leafValues>
        2.6574002578854561e-02 -5.8008331060409546e-01</leafValues></_>
    <_>
      <internalNodes>
        0 -1 61442 -1.9347935449331999e-03</internalNodes>
      <leafValues>
        1.5875355899333954e-01 -1.0505537688732147e-01</leafValues></_>
    <_>
      <internalNodes>
        0 -1 64743 7.3797749355435371e-03</internalNodes>
      <leafValues>
        5.5198274552822113e-02 -2.9929989576339722e-01</leafValues></_>
    <_>
      <internalNodes>
        0 -1 61285 1.0142927058041096e-02</internalNodes>
      <leafValues>
        -3.3061660826206207e-02 4.6742230653762817e-01</leafValues></_>
    <_>
      <internalNodes>
        0 -1 61250 -1.3581888051703572e-03</internalNodes>
      <leafValues>
        1.7192094027996063e-01 -1.0480383038520813e-01</leafValues></_>
    <_>
      <internalNodes>
        0 -1 68679 4.8270924016833305e-03</internalNodes>
      <leafValues>
        2.2184260189533234e-02 -6.5929174423217773e-01</leafValues></_></weakClassifiers></stage9>
</opencv_storage>
