<?xml version="1.0"?>
<opencv_storage>
<stage1>
  <maxWeakCount>33</maxWeakCount>
  <stageThreshold>-1.1426757574081421e+00</stageThreshold>
  <weakClassifiers>
    <_>
      <internalNodes>
        0 -1 5351 1.5237012878060341e-02</internalNodes>
      <leafValues>
        -1.3180077075958252e-01 7.6845878362655640e-01</leafValues></_>
    <_>
      <internalNodes>
        0 -1 64897 1.4814911410212517e-03</internalNodes>
      <leafValues>
        -1.6765782237052917e-01 5.5076020956039429e-01</leafValues></_>
    <_>
      <internalNodes>
        0 -1 43656 1.2744975276291370e-02</internalNodes>
      <leafValues>
        -2.8738081455230713e-01 3.3023384213447571e-01</leafValues></_>
    <_>
      <internalNodes>
        0 -1 26143 -2.1032658405601978e-03</internalNodes>
      <leafValues>
        3.1726321578025818e-01 -2.3560188710689545e-01</leafValues></_>
    <_>
      <internalNodes>
        0 -1 64542 -7.8097204677760601e-03</internalNodes>
      <leafValues>
        5.1739037036895752e-01 -1.7124539613723755e-01</leafValues></_>
    <_>
      <internalNodes>
        0 -1 61658 -3.4787459298968315e-03</internalNodes>
      <leafValues>
        3.7490734457969666e-01 -1.5132822096347809e-01</leafValues></_>
    <_>
      <internalNodes>
        0 -1 3974 1.5445981174707413e-02</internalNodes>
      <leafValues>
        -1.7857044935226440e-01 3.4819662570953369e-01</leafValues></_>
    <_>
      <internalNodes>
        0 -1 12602 2.9404587112367153e-03</internalNodes>
      <leafValues>
        -2.0978631079196930e-01 3.1587648391723633e-01</leafValues></_>
    <_>
      <internalNodes>
        0 -1 5796 1.1122159659862518e-02</internalNodes>
      <leafValues>
        -1.6319258511066437e-01 3.5281002521514893e-01</leafValues></_>
    <_>
      <internalNodes>
        0 -1 61028 -7.3540983721613884e-03</internalNodes>
      <leafValues>
        5.4161483049392700e-01 -6.3841767609119415e-02</leafValues></_>
    <_>
      <internalNodes>
        0 -1 64591 -2.1354455500841141e-02</internalNodes>
      <leafValues>
        3.2579928636550903e-01 -1.4414373040199280e-01</leafValues></_>
    <_>
      <internalNodes>
        0 -1 36163 9.7151715308427811e-03</internalNodes>
      <leafValues>
        -1.1192019283771515e-01 3.3545848727226257e-01</leafValues></_>
    <_>
      <internalNodes>
        0 -1 69238 2.7553280815482140e-03</internalNodes>
      <leafValues>
        -1.4955328404903412e-01 2.9261702299118042e-01</leafValues></_>
    <_>
      <internalNodes>
        0 -1 62009 -4.2150165885686874e-02</internalNodes>
      <leafValues>
        4.9363762140274048e-01 -7.8836724162101746e-02</leafValues></_>
    <_>
      <internalNodes>
        0 -1 20350 4.3546464294195175e-03</internalNodes>
      <leafValues>
        6.7418277263641357e-02 -6.1183112859725952e-01</leafValues></_>
    <_>
      <internalNodes>
        0 -1 20004 -4.9967365339398384e-03</internalNodes>
      <leafValues>
        2.8403261303901672e-01 -1.3408276438713074e-01</leafValues></_>
    <_>
      <internalNodes>
        0 -1 20320 1.4464445412158966e-03</internalNodes>
      <leafValues>
        -1.4949476718902588e-01 3.9834189414978027e-01</leafValues></_>
    <_>
      <internalNodes>
        0 -1 20322 -1.7707296647131443e-03</internalNodes>
      <leafValues>
        3.0296042561531067e-01 -1.2392321974039078e-01</leafValues></_>
    <_>
      <internalNodes>
        0 -1 53248 -1.4334970153868198e-02</internalNodes>
      <leafValues>
        -4.7745990753173828e-01 7.2331123054027557e-02</leafValues></_>
    <_>
      <internalNodes>
        0 -1 26855 -7.2654979303479195e-03</internalNodes>
      <leafValues>
        2.3616719245910645e-01 -1.5612547099590302e-01</leafValues></_>
    <_>
      <internalNodes>
        0 -1 56157 -2.0786810666322708e-02</internalNodes>
      <leafValues>
        3.7885650992393494e-01 -8.1858009099960327e-02</leafValues></_>
    <_>
      <internalNodes>
        0 -1 65059 1.8370591569691896e-03</internalNodes>
      <leafValues>
        -1.0427089780569077e-01 3.0256697535514832e-01</leafValues></_>
    <_>
      <internalNodes>
        0 -1 78413 2.5887913070619106e-03</internalNodes>
      <leafValues>
        8.2341596484184265e-02 -4.0669143199920654e-01</leafValues></_>
    <_>
      <internalNodes>
        0 -1 59960 -1.1010554153472185e-03</internalNodes>
      <leafValues>
        2.3127880692481995e-01 -1.5239866077899933e-01</leafValues></_>
    <_>
      <internalNodes>
        0 -1 25377 8.4276194684207439e-04</internalNodes>
      <leafValues>
        -1.1645787209272385e-01 2.7535870671272278e-01</leafValues></_>
    <_>
      <internalNodes>
        0 -1 39800 -2.2620283998548985e-03</internalNodes>
      <leafValues>
        -5.0467348098754883e-01 7.1023918688297272e-02</leafValues></_>
    <_>
      <internalNodes>
        0 -1 64901 -2.9559803660959005e-03</internalNodes>
      <leafValues>
        3.5856586694717407e-01 -8.8665693998336792e-02</leafValues></_>
    <_>
      <internalNodes>
        0 -1 14615 -5.2904342301189899e-03</internalNodes>
      <leafValues>
        -5.1945960521697998e-01 6.0410432517528534e-02</leafValues></_>
    <_>
      <internalNodes>
        0 -1 38972 4.6357503160834312e-03</internalNodes>
      <leafValues>
        -1.3155116140842438e-01 2.4440358579158783e-01</leafValues></_>
    <_>
      <internalNodes>
        0 -1 57395 8.0463048070669174e-03</internalNodes>
      <leafValues>
        5.0622742623090744e-02 -6.9344788789749146e-01</leafValues></_>
    <_>
      <internalNodes>
        0 -1 61254 5.8009503409266472e-03</internalNodes>
      <leafValues>
        -9.1798357665538788e-02 3.5506978631019592e-01</leafValues></_>
    <_>
      <internalNodes>
        0 -1 47256 1.7809695564210415e-03</internalNodes>
      <leafValues>
        1.0756585747003555e-01 -2.9975387454032898e-01</leafValues></_>
    <_>
      <internalNodes>
        0 -1 22391 -1.1260191909968853e-02</internalNodes>
      <leafValues>
        -3.3806338906288147e-01 7.9577013850212097e-02</leafValues></_></weakClassifiers></stage1>
</opencv_storage>
