<?xml version="1.0"?>
<opencv_storage>
<stage3>
  <maxWeakCount>48</maxWeakCount>
  <stageThreshold>-1.0221698284149170e+00</stageThreshold>
  <weakClassifiers>
    <_>
      <internalNodes>
        0 -1 35562 1.2618701905012131e-02</internalNodes>
      <leafValues>
        5.3187742829322815e-02 6.4388912916183472e-01</leafValues></_>
    <_>
      <internalNodes>
        0 -1 26143 -2.7627770323306322e-03</internalNodes>
      <leafValues>
        3.4944173693656921e-01 -2.5190344452857971e-01</leafValues></_>
    <_>
      <internalNodes>
        0 -1 61024 1.9593932665884495e-03</internalNodes>
      <leafValues>
        -2.1266336739063263e-01 3.7308558821678162e-01</leafValues></_>
    <_>
      <internalNodes>
        0 -1 68101 -2.6585776358842850e-03</internalNodes>
      <leafValues>
        4.7812888026237488e-01 -1.3355278968811035e-01</leafValues></_>
    <_>
      <internalNodes>
        0 -1 59906 1.2998440302908421e-02</internalNodes>
      <leafValues>
        -1.4265508949756622e-01 4.1049653291702271e-01</leafValues></_>
    <_>
      <internalNodes>
        0 -1 66676 -5.5663031525909901e-03</internalNodes>
      <leafValues>
        3.8828504085540771e-01 -1.3305531442165375e-01</leafValues></_>
    <_>
      <internalNodes>
        0 -1 53258 -1.4084659516811371e-02</internalNodes>
      <leafValues>
        -4.1883429884910583e-01 1.2314952909946442e-01</leafValues></_>
    <_>
      <internalNodes>
        0 -1 65060 1.2035142863169312e-03</internalNodes>
      <leafValues>
        -1.5114594995975494e-01 3.2401174306869507e-01</leafValues></_>
    <_>
      <internalNodes>
        0 -1 12957 1.1439200025051832e-03</internalNodes>
      <leafValues>
        -2.2021402418613434e-01 2.3408754169940948e-01</leafValues></_>
    <_>
      <internalNodes>
        0 -1 64900 2.4057468399405479e-03</internalNodes>
      <leafValues>
        -1.2254402041435242e-01 3.6572545766830444e-01</leafValues></_>
    <_>
      <internalNodes>
        0 -1 61441 -2.0331435371190310e-03</internalNodes>
      <leafValues>
        3.4013921022415161e-01 -1.0399402678012848e-01</leafValues></_>
    <_>
      <internalNodes>
        0 -1 60832 3.3706820104271173e-03</internalNodes>
      <leafValues>
        -1.2878762185573578e-01 3.2232984900474548e-01</leafValues></_>
    <_>
      <internalNodes>
        0 -1 53218 -1.0030119679868221e-02</internalNodes>
      <leafValues>
        -5.6146872043609619e-01 6.3331581652164459e-02</leafValues></_>
    <_>
      <internalNodes>
        0 -1 53449 6.9273016415536404e-03</internalNodes>
      <leafValues>
        6.3421010971069336e-02 -5.1597183942794800e-01</leafValues></_>
    <_>
      <internalNodes>
        0 -1 33946 -9.2016346752643585e-04</internalNodes>
      <leafValues>
        2.1675008535385132e-01 -1.4711989462375641e-01</leafValues></_>
    <_>
      <internalNodes>
        0 -1 41909 -9.0086376294493675e-03</internalNodes>
      <leafValues>
        3.9197880029678345e-01 -8.0126412212848663e-02</leafValues></_>
    <_>
      <internalNodes>
        0 -1 61810 1.3208325952291489e-02</internalNodes>
      <leafValues>
        8.5578486323356628e-02 -3.8926601409912109e-01</leafValues></_>
    <_>
      <internalNodes>
        0 -1 46977 4.2446795850992203e-03</internalNodes>
      <leafValues>
        -9.0236909687519073e-02 3.5213717818260193e-01</leafValues></_>
    <_>
      <internalNodes>
        0 -1 10179 -1.8723427783697844e-03</internalNodes>
      <leafValues>
        -3.9980635046958923e-01 7.9917564988136292e-02</leafValues></_>
    <_>
      <internalNodes>
        0 -1 66464 1.0604111477732658e-02</internalNodes>
      <leafValues>
        -7.9368144273757935e-02 3.8428103923797607e-01</leafValues></_>
    <_>
      <internalNodes>
        0 -1 46505 -7.2934525087475777e-03</internalNodes>
      <leafValues>
        -3.3214223384857178e-01 9.7325295209884644e-02</leafValues></_>
    <_>
      <internalNodes>
        0 -1 47249 3.8607204332947731e-03</internalNodes>
      <leafValues>
        6.2328942120075226e-02 -5.0494617223739624e-01</leafValues></_>
    <_>
      <internalNodes>
        0 -1 72622 -5.9833656996488571e-03</internalNodes>
      <leafValues>
        3.4030109643936157e-01 -9.6595965325832367e-02</leafValues></_>
    <_>
      <internalNodes>
        0 -1 61626 9.3245448078960180e-04</internalNodes>
      <leafValues>
        -1.1851600557565689e-01 2.3801635205745697e-01</leafValues></_>
    <_>
      <internalNodes>
        0 -1 64732 -1.0858830064535141e-03</internalNodes>
      <leafValues>
        2.8517222404479980e-01 -1.1611629277467728e-01</leafValues></_>
    <_>
      <internalNodes>
        0 -1 39726 -1.3256587553769350e-03</internalNodes>
      <leafValues>
        -2.7263379096984863e-01 1.1693468689918518e-01</leafValues></_>
    <_>
      <internalNodes>
        0 -1 53283 -4.6441950835287571e-03</internalNodes>
      <leafValues>
        -3.0128741264343262e-01 9.5063991844654083e-02</leafValues></_>
    <_>
      <internalNodes>
        0 -1 74759 -2.8342264704406261e-03</internalNodes>
      <leafValues>
        -4.8255243897438049e-01 5.6884303689002991e-02</leafValues></_>
    <_>
      <internalNodes>
        0 -1 56709 4.0559045970439911e-02</internalNodes>
      <leafValues>
        4.7686792910099030e-02 -5.2566802501678467e-01</leafValues></_>
    <_>
      <internalNodes>
        0 -1 57591 7.9563504550606012e-04</internalNodes>
      <leafValues>
        -1.1468600481748581e-01 2.4268840253353119e-01</leafValues></_>
    <_>
      <internalNodes>
        0 -1 75293 3.6595098674297333e-02</internalNodes>
      <leafValues>
        -1.0730725526809692e-01 2.4694618582725525e-01</leafValues></_>
    <_>
      <internalNodes>
        0 -1 25093 9.4959919806569815e-04</internalNodes>
      <leafValues>
        -1.3611377775669098e-01 1.7795506119728088e-01</leafValues></_>
    <_>
      <internalNodes>
        0 -1 61789 -2.2546832915395498e-03</internalNodes>
      <leafValues>
        -3.0565506219863892e-01 7.5064033269882202e-02</leafValues></_>
    <_>
      <internalNodes>
        0 -1 76650 4.6424502506852150e-03</internalNodes>
      <leafValues>
        4.7274421900510788e-02 -4.7338974475860596e-01</leafValues></_>
    <_>
      <internalNodes>
        0 -1 46871 -1.2601476628333330e-03</internalNodes>
      <leafValues>
        2.5043237209320068e-01 -9.6020534634590149e-02</leafValues></_>
    <_>
      <internalNodes>
        0 -1 58978 -7.6446197926998138e-03</internalNodes>
      <leafValues>
        -2.8716433048248291e-01 8.9813910424709320e-02</leafValues></_>
    <_>
      <internalNodes>
        0 -1 24309 -7.9516228288412094e-03</internalNodes>
      <leafValues>
        2.4678573012351990e-01 -1.0325521975755692e-01</leafValues></_>
    <_>
      <internalNodes>
        0 -1 57784 1.3265556190162897e-03</internalNodes>
      <leafValues>
        -9.6508309245109558e-02 2.6624816656112671e-01</leafValues></_>
    <_>
      <internalNodes>
        0 -1 56114 -3.4331757575273514e-02</internalNodes>
      <leafValues>
        -4.8785284161567688e-01 5.6438039988279343e-02</leafValues></_>
    <_>
      <internalNodes>
        0 -1 73504 1.6667696181684732e-03</internalNodes>
      <leafValues>
        6.2569163739681244e-02 -3.5411041975021362e-01</leafValues></_>
    <_>
      <internalNodes>
        0 -1 44815 1.2322586262598634e-03</internalNodes>
      <leafValues>
        -9.9343247711658478e-02 2.6916411519050598e-01</leafValues></_>
    <_>
      <internalNodes>
        0 -1 19767 1.9011814147233963e-02</internalNodes>
      <leafValues>
        4.1861634701490402e-02 -5.9327560663223267e-01</leafValues></_>
    <_>
      <internalNodes>
        0 -1 20350 -4.7525265836156905e-04</internalNodes>
      <leafValues>
        1.3133899867534637e-01 -1.6729307174682617e-01</leafValues></_>
    <_>
      <internalNodes>
        0 -1 64732 2.5136801414191723e-03</internalNodes>
      <leafValues>
        -8.5095807909965515e-02 2.7835303544998169e-01</leafValues></_>
    <_>
      <internalNodes>
        0 -1 68776 -3.0187366064637899e-03</internalNodes>
      <leafValues>
        -3.1983208656311035e-01 6.8844787776470184e-02</leafValues></_>
    <_>
      <internalNodes>
        0 -1 39799 5.5088838562369347e-03</internalNodes>
      <leafValues>
        4.0866944938898087e-02 -5.2415895462036133e-01</leafValues></_>
    <_>
      <internalNodes>
        0 -1 64898 -3.0262721702456474e-03</internalNodes>
      <leafValues>
        3.6133390665054321e-01 -6.6597528755664825e-02</leafValues></_>
    <_>
      <internalNodes>
        0 -1 64898 7.1969896089285612e-04</internalNodes>
      <leafValues>
        -1.1687214672565460e-01 2.0478172600269318e-01</leafValues></_></weakClassifiers></stage3>
</opencv_storage>
