<?xml version="1.0"?>
<opencv_storage>
<stage4>
  <maxWeakCount>66</maxWeakCount>
  <stageThreshold>-9.4468015432357788e-01</stageThreshold>
  <weakClassifiers>
    <_>
      <internalNodes>
        0 -1 26143 -2.8790915384888649e-03</internalNodes>
      <leafValues>
        5.7262104749679565e-01 3.5343036055564880e-02</leafValues></_>
    <_>
      <internalNodes>
        0 -1 36037 1.4038742519915104e-02</internalNodes>
      <leafValues>
        -1.0683982074260712e-01 5.6031841039657593e-01</leafValues></_>
    <_>
      <internalNodes>
        0 -1 67638 7.2145005688071251e-03</internalNodes>
      <leafValues>
        -1.6320663690567017e-01 3.6695578694343567e-01</leafValues></_>
    <_>
      <internalNodes>
        0 -1 12957 6.6238862928003073e-04</internalNodes>
      <leafValues>
        -2.8931984305381775e-01 1.5166279673576355e-01</leafValues></_>
    <_>
      <internalNodes>
        0 -1 69238 6.6805626265704632e-03</internalNodes>
      <leafValues>
        -1.1561011523008347e-01 4.2383569478988647e-01</leafValues></_>
    <_>
      <internalNodes>
        0 -1 57391 1.4599666465073824e-03</internalNodes>
      <leafValues>
        -1.6304162144660950e-01 2.5373581051826477e-01</leafValues></_>
    <_>
      <internalNodes>
        0 -1 64901 1.9583874382078648e-03</internalNodes>
      <leafValues>
        -1.3866405189037323e-01 3.5028582811355591e-01</leafValues></_>
    <_>
      <internalNodes>
        0 -1 41962 -1.0601738467812538e-02</internalNodes>
      <leafValues>
        3.6927163600921631e-01 -8.4777124226093292e-02</leafValues></_>
    <_>
      <internalNodes>
        0 -1 61477 -2.5990747381001711e-03</internalNodes>
      <leafValues>
        2.6189789175987244e-01 -1.1624923348426819e-01</leafValues></_>
    <_>
      <internalNodes>
        0 -1 57635 -1.2215262278914452e-02</internalNodes>
      <leafValues>
        -4.1605594754219055e-01 6.7886702716350555e-02</leafValues></_>
    <_>
      <internalNodes>
        0 -1 48786 -1.3257331214845181e-02</internalNodes>
      <leafValues>
        -4.0190446376800537e-01 8.1695802509784698e-02</leafValues></_>
    <_>
      <internalNodes>
        0 -1 61626 9.3326950445771217e-04</internalNodes>
      <leafValues>
        -1.3654597103595734e-01 2.2002565860748291e-01</leafValues></_>
    <_>
      <internalNodes>
        0 -1 39516 2.0250000525265932e-03</internalNodes>
      <leafValues>
        -1.2233255058526993e-01 2.1590353548526764e-01</leafValues></_>
    <_>
      <internalNodes>
        0 -1 41750 -1.4881254173815250e-03</internalNodes>
      <leafValues>
        2.5170692801475525e-01 -1.1272547394037247e-01</leafValues></_>
    <_>
      <internalNodes>
        0 -1 56356 5.8243470266461372e-03</internalNodes>
      <leafValues>
        4.2617172002792358e-02 -7.0191890001296997e-01</leafValues></_>
    <_>
      <internalNodes>
        0 -1 51996 3.6685599479824305e-03</internalNodes>
      <leafValues>
        5.6483246386051178e-02 -4.5992127060890198e-01</leafValues></_>
    <_>
      <internalNodes>
        0 -1 56110 -9.7262542694807053e-03</internalNodes>
      <leafValues>
        -3.5547691583633423e-01 7.1669057011604309e-02</leafValues></_>
    <_>
      <internalNodes>
        0 -1 56690 -5.5162953212857246e-03</internalNodes>
      <leafValues>
        3.0727735161781311e-01 -8.0421783030033112e-02</leafValues></_>
    <_>
      <internalNodes>
        0 -1 57788 7.3007717728614807e-03</internalNodes>
      <leafValues>
        3.5636838525533676e-02 -6.9391232728958130e-01</leafValues></_>
    <_>
      <internalNodes>
        0 -1 44926 8.5018132813274860e-04</internalNodes>
      <leafValues>
        -9.7876146435737610e-02 2.3322643339633942e-01</leafValues></_>
    <_>
      <internalNodes>
        0 -1 7446 -3.1992595177143812e-03</internalNodes>
      <leafValues>
        -3.8463529944419861e-01 5.9301663190126419e-02</leafValues></_>
    <_>
      <internalNodes>
        0 -1 73900 4.3330793268978596e-03</internalNodes>
      <leafValues>
        -9.9143281579017639e-02 2.1962070465087891e-01</leafValues></_>
    <_>
      <internalNodes>
        0 -1 44496 2.1530224476009607e-03</internalNodes>
      <leafValues>
        -1.0160122066736221e-01 2.1456804871559143e-01</leafValues></_>
    <_>
      <internalNodes>
        0 -1 2880 -3.0046395957469940e-02</internalNodes>
      <leafValues>
        -2.3078007996082306e-01 9.7737565636634827e-02</leafValues></_>
    <_>
      <internalNodes>
        0 -1 19632 -6.9925579009577632e-04</internalNodes>
      <leafValues>
        1.7123541235923767e-01 -1.3890887796878815e-01</leafValues></_>
    <_>
      <internalNodes>
        0 -1 19232 -5.3209010511636734e-03</internalNodes>
      <leafValues>
        2.4374189972877502e-01 -1.0688135027885437e-01</leafValues></_>
    <_>
      <internalNodes>
        0 -1 67457 1.2818174436688423e-03</internalNodes>
      <leafValues>
        -1.0883032530546188e-01 1.8959307670593262e-01</leafValues></_>
    <_>
      <internalNodes>
        0 -1 66811 -4.1790725663304329e-03</internalNodes>
      <leafValues>
        -3.8048195838928223e-01 5.8465190231800079e-02</leafValues></_>
    <_>
      <internalNodes>
        0 -1 64730 4.1125873103737831e-03</internalNodes>
      <leafValues>
        -7.1002371609210968e-02 2.9967799782752991e-01</leafValues></_>
    <_>
      <internalNodes>
        0 -1 46870 2.5678675156086683e-03</internalNodes>
      <leafValues>
        4.9883604049682617e-02 -4.2018252611160278e-01</leafValues></_>
    <_>
      <internalNodes>
        0 -1 57460 -6.2778522260487080e-04</internalNodes>
      <leafValues>
        1.3923434913158417e-01 -1.5640997886657715e-01</leafValues></_>
    <_>
      <internalNodes>
        0 -1 61444 2.4979601148515940e-03</internalNodes>
      <leafValues>
        -8.1625863909721375e-02 2.6409819722175598e-01</leafValues></_>
    <_>
      <internalNodes>
        0 -1 76902 2.0586806349456310e-03</internalNodes>
      <leafValues>
        7.3076911270618439e-02 -2.7752912044525146e-01</leafValues></_>
    <_>
      <internalNodes>
        0 -1 53253 -2.2731516510248184e-02</internalNodes>
      <leafValues>
        -4.7779923677444458e-01 4.2531475424766541e-02</leafValues></_>
    <_>
      <internalNodes>
        0 -1 78293 1.2404459994286299e-03</internalNodes>
      <leafValues>
        6.3461534678936005e-02 -2.9369470477104187e-01</leafValues></_>
    <_>
      <internalNodes>
        0 -1 66856 2.0978562533855438e-03</internalNodes>
      <leafValues>
        -8.8592119514942169e-02 2.2425152361392975e-01</leafValues></_>
    <_>
      <internalNodes>
        0 -1 69741 -3.4698620438575745e-03</internalNodes>
      <leafValues>
        1.9762158393859863e-01 -1.1611298471689224e-01</leafValues></_>
    <_>
      <internalNodes>
        0 -1 61253 -6.5381815657019615e-03</internalNodes>
      <leafValues>
        -3.8533350825309753e-01 5.2235770970582962e-02</leafValues></_>
    <_>
      <internalNodes>
        0 -1 55623 -1.1211220175027847e-01</internalNodes>
      <leafValues>
        2.9405635595321655e-01 -7.3061756789684296e-02</leafValues></_>
    <_>
      <internalNodes>
        0 -1 65060 1.5637835022062063e-03</internalNodes>
      <leafValues>
        -8.7592162191867828e-02 2.5046622753143311e-01</leafValues></_>
    <_>
      <internalNodes>
        0 -1 61147 -1.3208952732384205e-02</internalNodes>
      <leafValues>
        -3.1304413080215454e-01 8.0476902425289154e-02</leafValues></_>
    <_>
      <internalNodes>
        0 -1 59958 -9.3820679467171431e-04</internalNodes>
      <leafValues>
        1.8287353217601776e-01 -1.1499259620904922e-01</leafValues></_>
    <_>
      <internalNodes>
        0 -1 67815 -7.5233625248074532e-03</internalNodes>
      <leafValues>
        3.7345105409622192e-01 -4.9912642687559128e-02</leafValues></_>
    <_>
      <internalNodes>
        0 -1 15327 1.6949623823165894e-01</internalNodes>
      <leafValues>
        -5.4370939731597900e-02 3.7554165720939636e-01</leafValues></_>
    <_>
      <internalNodes>
        0 -1 53215 3.9045475423336029e-03</internalNodes>
      <leafValues>
        5.9300892055034637e-02 -3.5223302245140076e-01</leafValues></_>
    <_>
      <internalNodes>
        0 -1 70253 -3.9149960502982140e-03</internalNodes>
      <leafValues>
        2.3198632895946503e-01 -8.7356843054294586e-02</leafValues></_>
    <_>
      <internalNodes>
        0 -1 19222 5.4316530004143715e-03</internalNodes>
      <leafValues>
        -5.9288423508405685e-02 2.9631310701370239e-01</leafValues></_>
    <_>
      <internalNodes>
        0 -1 20320 -1.3778512366116047e-03</internalNodes>
      <leafValues>
        2.3443853855133057e-01 -1.0874761641025543e-01</leafValues></_>
    <_>
      <internalNodes>
        0 -1 20320 1.2450636131688952e-03</internalNodes>
      <leafValues>
        -1.0934726148843765e-01 2.0218041539192200e-01</leafValues></_>
    <_>
      <internalNodes>
        0 -1 6676 2.1613845601677895e-03</internalNodes>
      <leafValues>
        5.4497051984071732e-02 -4.1375273466110229e-01</leafValues></_>
    <_>
      <internalNodes>
        0 -1 19631 -1.9571823067963123e-03</internalNodes>
      <leafValues>
        2.4322992563247681e-01 -8.8502347469329834e-02</leafValues></_>
    <_>
      <internalNodes>
        0 -1 75070 8.2813184708356857e-03</internalNodes>
      <leafValues>
        2.6607442647218704e-02 -7.6756078004837036e-01</leafValues></_>
    <_>
      <internalNodes>
        0 -1 74382 1.0182114318013191e-02</internalNodes>
      <leafValues>
        3.6867935210466385e-02 -4.6128672361373901e-01</leafValues></_>
    <_>
      <internalNodes>
        0 -1 48980 -6.7981518805027008e-04</internalNodes>
      <leafValues>
        1.8601466715335846e-01 -1.0273674130439758e-01</leafValues></_>
    <_>
      <internalNodes>
        0 -1 63861 6.1918948777019978e-03</internalNodes>
      <leafValues>
        3.5498037934303284e-02 -5.8427917957305908e-01</leafValues></_>
    <_>
      <internalNodes>
        0 -1 78140 -3.3891638740897179e-03</internalNodes>
      <leafValues>
        -5.1645952463150024e-01 3.5278521478176117e-02</leafValues></_>
    <_>
      <internalNodes>
        0 -1 33478 6.4973058179020882e-03</internalNodes>
      <leafValues>
        -1.0440439730882645e-01 1.8741983175277710e-01</leafValues></_>
    <_>
      <internalNodes>
        0 -1 33198 -2.5995515752583742e-03</internalNodes>
      <leafValues>
        -4.3193128705024719e-01 4.4144798070192337e-02</leafValues></_>
    <_>
      <internalNodes>
        0 -1 72382 -1.6066289972513914e-03</internalNodes>
      <leafValues>
        2.1162308752536774e-01 -9.0196095407009125e-02</leafValues></_>
    <_>
      <internalNodes>
        0 -1 72214 -1.2273867614567280e-03</internalNodes>
      <leafValues>
        1.9278307259082794e-01 -9.3261510133743286e-02</leafValues></_>
    <_>
      <internalNodes>
        0 -1 8319 3.6178255686536431e-04</internalNodes>
      <leafValues>
        1.0893581807613373e-01 -1.6844546794891357e-01</leafValues></_>
    <_>
      <internalNodes>
        0 -1 7624 -1.4060242101550102e-03</internalNodes>
      <leafValues>
        -3.4868746995925903e-01 6.0641087591648102e-02</leafValues></_>
    <_>
      <internalNodes>
        0 -1 30302 8.2502921577543020e-04</internalNodes>
      <leafValues>
        -1.1828134953975677e-01 1.5075194835662842e-01</leafValues></_>
    <_>
      <internalNodes>
        0 -1 17812 -3.5900175571441650e-03</internalNodes>
      <leafValues>
        -3.8454437255859375e-01 4.7028791159391403e-02</leafValues></_>
    <_>
      <internalNodes>
        0 -1 27050 2.0723441615700722e-02</internalNodes>
      <leafValues>
        -4.3163340538740158e-02 4.5032835006713867e-01</leafValues></_>
    <_>
      <internalNodes>
        0 -1 18786 -1.6792817041277885e-03</internalNodes>
      <leafValues>
        2.0549084246158600e-01 -8.3139561116695404e-02</leafValues></_></weakClassifiers></stage4>
</opencv_storage>
